<?xml version="1.0"?>
<opencv_storage>
<cascade>
  <stageType>BOOST</stageType>
  <featureType>HAAR</featureType>
  <height>24</height>
  <width>24</width>
  <stageParams>
    <boostType>GAB</boostType>
    <minHitRate>9.9500000476837158e-01</minHitRate>
    <maxFalseAlarm>3.7999999523162842e-01</maxFalseAlarm>
    <weightTrimRate>9.4999999999999996e-01</weightTrimRate>
    <maxDepth>1</maxDepth>
    <maxWeakCount>100</maxWeakCount></stageParams>
  <featureParams>
    <maxCatCount>0</maxCatCount>
    <featSize>1</featSize>
    <mode>BASIC</mode></featureParams>
  <stageNum>12</stageNum>
  <stages>
    <!-- stage 0 -->
    <_>
      <maxWeakCount>3</maxWeakCount>
      <stageThreshold>-7.9423940181732178e-01</stageThreshold>
      <weakClassifiers>
        <_>
          <internalNodes>
            0 -1 8 2.2830273956060410e-03</internalNodes>
          <leafValues>
            -9.0196079015731812e-01 9.6969699859619141e-01</leafValues></_>
        <_>
          <internalNodes>
            0 -1 31 -2.2494904696941376e-03</internalNodes>
          <leafValues>
            9.7057604789733887e-01 -8.1337785720825195e-01</leafValues></_>
        <_>
          <internalNodes>
            0 -1 20 -6.2513793818652630e-04</internalNodes>
          <leafValues>
            9.2109924554824829e-01 -8.2168316841125488e-01</leafValues></_></weakClassifiers></_>
    <!-- stage 1 -->
    <_>
      <maxWeakCount>3</maxWeakCount>
      <stageThreshold>-6.5164595842361450e-01</stageThreshold>
      <weakClassifiers>
        <_>
          <internalNodes>
            0 -1 17 1.2931112200021744e-02</internalNodes>
          <leafValues>
            -8.3177572488784790e-01 9.7927463054656982e-01</leafValues></_>
        <_>
          <internalNodes>
            0 -1 3 5.5922530591487885e-03</internalNodes>
          <leafValues>
            -7.6457405090332031e-01 9.4129228591918945e-01</leafValues></_>
        <_>
          <internalNodes>
            0 -1 7 -4.4561130926012993e-03</internalNodes>
          <leafValues>
            9.4470381736755371e-01 -7.4225413799285889e-01</leafValues></_></weakClassifiers></_>
    <!-- stage 2 -->
    <_>
      <maxWeakCount>2</maxWeakCount>
      <stageThreshold>2.3301078472286463e-03</stageThreshold>
      <weakClassifiers>
        <_>
          <internalNodes>
            0 -1 27 -2.9172101058065891e-03</internalNodes>
          <leafValues>
            1. -8.6915886402130127e-01</leafValues></_>
        <_>
          <internalNodes>
            0 -1 26 -1.0318053886294365e-02</internalNodes>
          <leafValues>
            8.7148898839950562e-01 -8.8463938236236572e-01</leafValues></_></weakClassifiers></_>
    <!-- stage 3 -->
    <_>
      <maxWeakCount>2</maxWeakCount>
      <stageThreshold>-7.9000987112522125e-02</stageThreshold>
      <weakClassifiers>
        <_>
          <internalNodes>
            0 -1 30 -1.3657917268574238e-02</internalNodes>
          <leafValues>
            9.2156863212585449e-01 -9.1666668653488159e-01</leafValues></_>
        <_>
          <internalNodes>
            0 -1 33 -2.2339648567140102e-03</internalNodes>
          <leafValues>
            8.3766567707061768e-01 -9.2241406440734863e-01</leafValues></_></weakClassifiers></_>
    <!-- stage 4 -->
    <_>
      <maxWeakCount>3</maxWeakCount>
      <stageThreshold>-7.2273337841033936e-01</stageThreshold>
      <weakClassifiers>
        <_>
          <internalNodes>
            0 -1 22 5.6156930513679981e-03</internalNodes>
          <leafValues>
            -7.9439252614974976e-01 9.5854920148849487e-01</leafValues></_>
        <_>
          <internalNodes>
            0 -1 36 -1.3699815608561039e-03</internalNodes>
          <leafValues>
            8.7365186214447021e-01 -6.6320431232452393e-01</leafValues></_>
        <_>
          <internalNodes>
            0 -1 4 1.9328602356836200e-03</internalNodes>
          <leafValues>
            -8.0199265480041504e-01 8.2916194200515747e-01</leafValues></_></weakClassifiers></_>
    <!-- stage 5 -->
    <_>
      <maxWeakCount>3</maxWeakCount>
      <stageThreshold>-9.4364327192306519e-01</stageThreshold>
      <weakClassifiers>
        <_>
          <internalNodes>
            0 -1 11 1.4657504856586456e-02</internalNodes>
          <leafValues>
            -8.9999997615814209e-01 9.4999998807907104e-01</leafValues></_>
        <_>
          <internalNodes>
            0 -1 12 1.1969266925007105e-03</internalNodes>
          <leafValues>
            -7.8897523880004883e-01 8.9675164222717285e-01</leafValues></_>
        <_>
          <internalNodes>
            0 -1 10 1.9659027457237244e-03</internalNodes>
          <leafValues>
            -9.6390491724014282e-01 7.4533194303512573e-01</leafValues></_></weakClassifiers></_>
    <!-- stage 6 -->
    <_>
      <maxWeakCount>3</maxWeakCount>
      <stageThreshold>-7.9664129018783569e-01</stageThreshold>
      <weakClassifiers>
        <_>
          <internalNodes>
            0 -1 19 2.5343012064695358e-02</internalNodes>
          <leafValues>
            -8.2178217172622681e-01 9.1959798336029053e-01</leafValues></_>
        <_>
          <internalNodes>
            0 -1 35 -2.8033480048179626e-03</internalNodes>
          <leafValues>
            9.2980861663818359e-01 -6.5420502424240112e-01</leafValues></_>
        <_>
          <internalNodes>
            0 -1 15 -3.7136645987629890e-03</internalNodes>
          <leafValues>
            7.6975351572036743e-01 -9.0466767549514771e-01</leafValues></_></weakClassifiers></_>
    <!-- stage 7 -->
    <_>
      <maxWeakCount>4</maxWeakCount>
      <stageThreshold>-2.2564505040645599e-01</stageThreshold>
      <weakClassifiers>
        <_>
          <internalNodes>
            0 -1 14 -1.3514121994376183e-02</internalNodes>
          <leafValues>
            8.9898991584777832e-01 -7.6470589637756348e-01</leafValues></_>
        <_>
          <internalNodes>
            0 -1 13 -2.6682228781282902e-03</internalNodes>
          <leafValues>
            8.2105797529220581e-01 -7.6656001806259155e-01</leafValues></_>
        <_>
          <internalNodes>
            0 -1 1 1.9262011628597975e-03</internalNodes>
          <leafValues>
            -7.9871684312820435e-01 7.2352504730224609e-01</leafValues></_>
        <_>
          <internalNodes>
            0 -1 28 2.0874682813882828e-03</internalNodes>
          <leafValues>
            -9.4632452726364136e-01 5.8209574222564697e-01</leafValues></_></weakClassifiers></_>
    <!-- stage 8 -->
    <_>
      <maxWeakCount>3</maxWeakCount>
      <stageThreshold>-5.3543186187744141e-01</stageThreshold>
      <weakClassifiers>
        <_>
          <internalNodes>
            0 -1 25 -2.2733913734555244e-02</internalNodes>
          <leafValues>
            9.8907101154327393e-01 -6.9230771064758301e-01</leafValues></_>
        <_>
          <internalNodes>
            0 -1 9 -2.9792694374918938e-02</internalNodes>
          <leafValues>
            9.8839193582534790e-01 -4.8498532176017761e-01</leafValues></_>
        <_>
          <internalNodes>
            0 -1 18 -2.1895240060985088e-03</internalNodes>
          <leafValues>
            7.5991886854171753e-01 -8.3151614665985107e-01</leafValues></_></weakClassifiers></_>
    <!-- stage 9 -->
    <_>
      <maxWeakCount>4</maxWeakCount>
      <stageThreshold>-1.1700761318206787e-01</stageThreshold>
      <weakClassifiers>
        <_>
          <internalNodes>
            0 -1 2 1.0238411277532578e-01</internalNodes>
          <leafValues>
            -7.5238096714019775e-01 9.1794872283935547e-01</leafValues></_>
        <_>
          <internalNodes>
            0 -1 34 3.1213350594043732e-03</internalNodes>
          <leafValues>
            -6.7921262979507446e-01 8.5657972097396851e-01</leafValues></_>
        <_>
          <internalNodes>
            0 -1 5 1.3787740841507912e-02</internalNodes>
          <leafValues>
            -7.1275591850280762e-01 8.0163365602493286e-01</leafValues></_>
        <_>
          <internalNodes>
            0 -1 29 -5.5535847786813974e-04</internalNodes>
          <leafValues>
            -9.9256074428558350e-01 5.1295232772827148e-01</leafValues></_></weakClassifiers></_>
    <!-- stage 10 -->
    <_>
      <maxWeakCount>3</maxWeakCount>
      <stageThreshold>-5.8520203828811646e-01</stageThreshold>
      <weakClassifiers>
        <_>
          <internalNodes>
            0 -1 6 -2.4330092594027519e-02</internalNodes>
          <leafValues>
            9.3684208393096924e-01 -7.0909088850021362e-01</leafValues></_>
        <_>
          <internalNodes>
            0 -1 32 -4.6029333025217056e-03</internalNodes>
          <leafValues>
            8.1998795270919800e-01 -6.7618346214294434e-01</leafValues></_>
        <_>
          <internalNodes>
            0 -1 0 -4.8898831009864807e-02</internalNodes>
          <leafValues>
            8.0007237195968628e-01 -6.3462311029434204e-01</leafValues></_></weakClassifiers></_>
    <!-- stage 11 -->
    <_>
      <maxWeakCount>4</maxWeakCount>
      <stageThreshold>-1.4415335655212402e-01</stageThreshold>
      <weakClassifiers>
        <_>
          <internalNodes>
            0 -1 24 -1.9659467041492462e-02</internalNodes>
          <leafValues>
            8.9637303352355957e-01 -6.8224298954010010e-01</leafValues></_>
        <_>
          <internalNodes>
            0 -1 16 1.9821294117718935e-03</internalNodes>
          <leafValues>
            -9.8313760757446289e-01 6.6112542152404785e-01</leafValues></_>
        <_>
          <internalNodes>
            0 -1 21 4.7888323664665222e-02</internalNodes>
          <leafValues>
            -6.5892350673675537e-01 8.6535495519638062e-01</leafValues></_>
        <_>
          <internalNodes>
            0 -1 23 -5.1482118578860536e-05</internalNodes>
          <leafValues>
            6.0153472423553467e-01 -9.6878266334533691e-01</leafValues></_></weakClassifiers></_></stages>
  <features>
    <_>
      <rects>
        <_>
          0 10 14 12 -1.</_>
        <_>
          0 10 7 6 2.</_>
        <_>
          7 16 7 6 2.</_></rects>
      <tilted>0</tilted></_>
    <_>
      <rects>
        <_>
          0 17 2 4 -1.</_>
        <_>
          1 17 1 4 2.</_></rects>
      <tilted>0</tilted></_>
    <_>
      <rects>
        <_>
          1 14 23 8 -1.</_>
        <_>
          1 18 23 4 2.</_></rects>
      <tilted>0</tilted></_>
    <_>
      <rects>
        <_>
          1 15 3 6 -1.</_>
        <_>
          1 18 3 3 2.</_></rects>
      <tilted>0</tilted></_>
    <_>
      <rects>
        <_>
          3 16 6 6 -1.</_>
        <_>
          3 16 3 3 2.</_>
        <_>
          6 19 3 3 2.</_></rects>
      <tilted>0</tilted></_>
    <_>
      <rects>
        <_>
          4 2 4 12 -1.</_>
        <_>
          4 2 2 6 2.</_>
        <_>
          6 8 2 6 2.</_></rects>
      <tilted>0</tilted></_>
    <_>
      <rects>
        <_>
          4 4 14 4 -1.</_>
        <_>
          4 4 7 2 2.</_>
        <_>
          11 6 7 2 2.</_></rects>
      <tilted>0</tilted></_>
    <_>
      <rects>
        <_>
          6 7 4 4 -1.</_>
        <_>
          6 7 2 2 2.</_>
        <_>
          8 9 2 2 2.</_></rects>
      <tilted>0</tilted></_>
    <_>
      <rects>
        <_>
          6 11 4 2 -1.</_>
        <_>
          6 11 2 1 2.</_>
        <_>
          8 12 2 1 2.</_></rects>
      <tilted>0</tilted></_>
    <_>
      <rects>
        <_>
          6 12 9 4 -1.</_>
        <_>
          6 14 9 2 2.</_></rects>
      <tilted>0</tilted></_>
    <_>
      <rects>
        <_>
          6 13 4 1 -1.</_>
        <_>
          8 13 2 1 2.</_></rects>
      <tilted>0</tilted></_>
    <_>
      <rects>
        <_>
          6 15 7 6 -1.</_>
        <_>
          6 18 7 3 2.</_></rects>
      <tilted>0</tilted></_>
    <_>
      <rects>
        <_>
          7 6 2 2 -1.</_>
        <_>
          7 7 2 1 2.</_></rects>
      <tilted>0</tilted></_>
    <_>
      <rects>
        <_>
          7 7 2 4 -1.</_>
        <_>
          7 7 1 2 2.</_>
        <_>
          8 9 1 2 2.</_></rects>
      <tilted>0</tilted></_>
    <_>
      <rects>
        <_>
          7 7 4 6 -1.</_>
        <_>
          9 7 2 6 2.</_></rects>
      <tilted>0</tilted></_>
    <_>
      <rects>
        <_>
          8 7 4 2 -1.</_>
        <_>
          10 7 2 2 2.</_></rects>
      <tilted>0</tilted></_>
    <_>
      <rects>
        <_>
          8 10 8 4 -1.</_>
        <_>
          8 12 8 2 2.</_></rects>
      <tilted>0</tilted></_>
    <_>
      <rects>
        <_>
          9 3 8 2 -1.</_>
        <_>
          13 3 4 2 2.</_></rects>
      <tilted>0</tilted></_>
    <_>
      <rects>
        <_>
          9 12 2 12 -1.</_>
        <_>
          10 12 1 12 2.</_></rects>
      <tilted>0</tilted></_>
    <_>
      <rects>
        <_>
          10 2 4 21 -1.</_>
        <_>
          12 2 2 21 2.</_></rects>
      <tilted>0</tilted></_>
    <_>
      <rects>
        <_>
          10 12 4 2 -1.</_>
        <_>
          10 12 2 1 2.</_>
        <_>
          12 13 2 1 2.</_></rects>
      <tilted>0</tilted></_>
    <_>
      <rects>
        <_>
          10 15 13 6 -1.</_>
        <_>
          10 18 13 3 2.</_></rects>
      <tilted>0</tilted></_>
    <_>
      <rects>
        <_>
          11 13 2 10 -1.</_>
        <_>
          11 13 1 5 2.</_>
        <_>
          12 18 1 5 2.</_></rects>
      <tilted>0</tilted></_>
    <_>
      <rects>
        <_>
          11 18 1 4 -1.</_>
        <_>
          11 20 1 2 2.</_></rects>
      <tilted>0</tilted></_>
    <_>
      <rects>
        <_>
          12 1 2 20 -1.</_>
        <_>
          12 1 1 10 2.</_>
        <_>
          13 11 1 10 2.</_></rects>
      <tilted>0</tilted></_>
    <_>
      <rects>
        <_>
          12 2 2 20 -1.</_>
        <_>
          12 2 1 10 2.</_>
        <_>
          13 12 1 10 2.</_></rects>
      <tilted>0</tilted></_>
    <_>
      <rects>
        <_>
          12 3 4 10 -1.</_>
        <_>
          12 3 2 5 2.</_>
        <_>
          14 8 2 5 2.</_></rects>
      <tilted>0</tilted></_>
    <_>
      <rects>
        <_>
          12 10 2 4 -1.</_>
        <_>
          12 10 1 2 2.</_>
        <_>
          13 12 1 2 2.</_></rects>
      <tilted>0</tilted></_>
    <_>
      <rects>
        <_>
          12 17 6 6 -1.</_>
        <_>
          12 17 3 3 2.</_>
        <_>
          15 20 3 3 2.</_></rects>
      <tilted>0</tilted></_>
    <_>
      <rects>
        <_>
          13 0 1 8 -1.</_>
        <_>
          13 4 1 4 2.</_></rects>
      <tilted>0</tilted></_>
    <_>
      <rects>
        <_>
          13 1 4 10 -1.</_>
        <_>
          15 1 2 10 2.</_></rects>
      <tilted>0</tilted></_>
    <_>
      <rects>
        <_>
          13 11 2 3 -1.</_>
        <_>
          14 11 1 3 2.</_></rects>
      <tilted>0</tilted></_>
    <_>
      <rects>
        <_>
          14 2 2 6 -1.</_>
        <_>
          14 5 2 3 2.</_></rects>
      <tilted>0</tilted></_>
    <_>
      <rects>
        <_>
          17 2 2 7 -1.</_>
        <_>
          18 2 1 7 2.</_></rects>
      <tilted>0</tilted></_>
    <_>
      <rects>
        <_>
          18 19 4 3 -1.</_>
        <_>
          20 19 2 3 2.</_></rects>
      <tilted>0</tilted></_>
    <_>
      <rects>
        <_>
          18 22 5 2 -1.</_>
        <_>
          18 23 5 1 2.</_></rects>
      <tilted>0</tilted></_>
    <_>
      <rects>
        <_>
          22 16 2 6 -1.</_>
        <_>
          22 16 1 3 2.</_>
        <_>
          23 19 1 3 2.</_></rects>
      <tilted>0</tilted></_></features></cascade>
</opencv_storage>
